{"learner":{"attributes":{"scikit_learn":"{\"_estimator_type\": \"classifier\"}"},"feature_names":["temperatura_ambiente_c","temperatura_entrada_c","temperatura_salida_c","delta_temp_c","presion_entrada_bar","presion_salida_bar","delta_presion_bar","flujo_masico_kgs","vibracion_rms_mms","velocidad_rpm","potencia_kw","consumo_energia_kwh","horas_operacion","humedad_relativa_pct","modo_operacion_Baja carga","modo_operacion_Normal"],"feature_types":["float","float","float","float","float","float","float","float","float","float","float","float","float","float","int","int"],"gradient_booster":{"model":{"gbtree_model_param":{"num_parallel_tree":"1","num_trees":"7"},"iteration_indptr":[0,1,2,3,4,5,6,7],"tree_info":[0,0,0,0,0,0,0],"trees":[{"base_weights":[4.841599E-3,-7.3474884E-1,7.8946877E-1,-1.2241142E0,1.1525476E0,-1.269261E-1,9.1143584E-1,-1.269595E-1,-9.7746027E-1,1.3851117E0,-1.268507E-1,4.734481E-1,1.4555457E0,-4.257611E-1,-1.6386151E0,-1.2680233E-1,1.5717496E0,-7.0948005E-1,8.796787E-1,1.5225601E0,-1.267513E-1,-1.2694207E-1,-4.7384243E-2,-1.8248965E0,4.3367386E-1,1.6668901E0,-1.2661579E-1,8.8615406E-1,-1.2694468E-1,-1.2689587E-1,1.069067E0,-1.2668626E-1,1.5759052E0,-1.2608694E0,4.27113E-1,-1.2695998E-1,-1.0962503E0,-1.2678021E-1,1.2684734E-1,-1.264044E-1,1.7289704E0,-1.267513E-1,1.3328143E0,-1.2686749E-1,1.221162E0,1.6086949E0,-1.2649836E-1,1.0681024E-1,-1.2694025E-1,6.756218E-1,-1.268742E-1,1.0225872E-1,-1.269227E-1,-1.262635E-1,1.7801689E0,1.9430374E0,-1.267513E-1,1.3030062E0,-1.267668E-1,1.6308908E0,-1.262635E-1,8.716372E-1,-1.2682721E-1,1.2933491E0,1.8975385E0,1.2691064E-1,1.152981E-1,7.418915E-1,1.7412368E0,6.5406626E-1,1.692571E0,6.518928E-2,-1.267668E-1,1.2158182E-1,-1.2665494E-1,1.2438894E-1,9.919006E-2,8.371306E-2,-1.2690105E-1,-1.2656546E-1,1.1603991E-1,-1.267513E-1,1.2685832E-1,1.10975355E-1,2.1049269E-2],"categories":[],"categories_nodes":[],"categories_segments":[],"categories_sizes":[],"default_left":[0,0,0,0,0,0,0,0,0,0,0,0,0,0,0,0,0,0,0,0,0,0,0,0,0,0,0,0,0,0,0,0,0,0,0,0,0,0,0,0,0,0,0,0,0,0,0,0,0,0,0,0,0,0,0,0,0,0,0,0,0,0,0,0,0,0,0,0,0,0,0,0,0,0,0,0,0,0,0,0,0,0,0,0,0],"id":0,"left_children":[1,3,5,7,9,-1,11,-1,13,15,-1,17,19,21,23,-1,25,27,29,31,-1,-1,33,35,37,39,-1,41,-1,-1,43,-1,45,47,49,-1,51,-1,-1,-1,53,-1,55,-1,57,59,-1,-1,-1,61,-1,-1,-1,-1,63,65,-1,67,-1,69,-1,71,-1,73,75,-1,-1,77,79,81,83,-1,-1,-1,-1,-1,-1,-1,-1,-1,-1,-1,-1,-1,-1],"loss_changes":[4.7817038E2,3.9175226E2,1.3598961E2,6.441846E1,6.398719E1,0E0,9.127353E1,0E0,9.320447E1,5.1342606E1,0E0,1.0199706E2,3.951703E1,8.2951675E1,4.489081E1,0E0,2.615129E1,1.11692276E2,8.612661E1,3.1447693E1,0E0,0E0,6.469009E1,1.3566284E1,3.6444576E1,1.7049072E1,0E0,3.1218645E1,0E0,0E0,6.915857E1,0E0,1.9313416E1,6.867414E1,4.8662098E1,0E0,5.0526215E1,0E0,0E0,0E0,1.405307E1,0E0,4.266643E1,0E0,3.719516E1,1.3059723E1,0E0,0E0,0E0,3.837391E1,0E0,0E0,0E0,0E0,4.1273193E0,8.509064E-2,0E0,3.3846024E1,0E0,9.7708435E0,0E0,3.037899E1,0E0,2.8968296E1,1.1776886E0,0E0,0E0,9.550019E1,2.5018478E1,3.4444782E1,1.1530884E1,0E0,0E0,0E0,0E0,0E0,0E0,0E0,0E0,0E0,0E0,0E0,0E0,0E0,0E0],"parents":[2147483647,0,0,1,1,2,2,3,3,4,4,6,6,8,8,9,9,11,11,12,12,13,13,14,14,16,16,17,17,18,18,19,19,22,22,23,23,24,24,25,25,27,27,30,30,32,32,33,33,34,34,36,36,40,40,42,42,44,44,45,45,49,49,54,54,55,55,57,57,59,59,61,61,63,63,64,64,67,67,68,68,69,69,70,70],"right_children":[2,4,6,8,10,-1,12,-1,14,16,-1,18,20,22,24,-1,26,28,30,32,-1,-1,34,36,38,40,-1,42,-1,-1,44,-1,46,48,50,-1,52,-1,-1,-1,54,-1,56,-1,58,60,-1,-1,-1,62,-1,-1,-1,-1,64,66,-1,68,-1,70,-1,72,-1,74,76,-1,-1,78,80,82,84,-1,-1,-1,-1,-1,-1,-1,-1,-1,-1,-1,-1,-1,-1],"split_conditions":[3.0669147E-1,1.184469E0,-1.1227725E0,-7.508055E-1,8.1513786E-1,-1.269261E-1,8.8047814E-1,-1.269595E-1,-3.636032E-2,-8.41592E-1,-1.268507E-1,-1.9094609E-1,2.0882366E0,-1.0105615E0,1.8424689E0,-1.2680233E-1,1.066252E0,-1.3079418E0,-9.451007E-1,-9.672557E-1,-1.267513E-1,-1.2694207E-1,-6.6356486E-1,7.1567714E-1,3.596347E-1,-8.2358176E-1,-1.2661579E-1,-4.325507E-1,-1.2694468E-1,-1.2689587E-1,8.919802E-2,-1.2668626E-1,2.0584462E0,-2.080017E0,5.737316E-1,-1.2695998E-1,7.280318E-1,-1.2678021E-1,1.2684734E-1,-1.264044E-1,-1.4894589E0,-1.267513E-1,-2.7749714E-1,-1.2686749E-1,8.1944907E-1,1.4167377E0,-1.2649836E-1,1.0681024E-1,-1.2694025E-1,4.2808744E-1,-1.268742E-1,1.0225872E-1,-1.269227E-1,-1.262635E-1,-2.7232593E-1,3.3048698E-1,-1.267513E-1,1.2698603E0,-1.267668E-1,4.4266596E-1,-1.262635E-1,1.0422704E0,-1.2682721E-1,-9.396348E-1,1.5186625E0,1.2691064E-1,1.152981E-1,8.0299836E-1,-4.443042E-1,1.9384234E0,1.7537564E0,6.518928E-2,-1.267668E-1,1.2158182E-1,-1.2665494E-1,1.2438894E-1,9.919006E-2,8.371306E-2,-1.2690105E-1,-1.2656546E-1,1.1603991E-1,-1.267513E-1,1.2685832E-1,1.10975355E-1,2.1049269E-2],"split_indices":[8,6,10,7,10,0,10,0,10,7,0,1,10,8,0,0,0,0,5,3,0,0,5,6,3,11,0,10,0,0,12,0,7,11,11,0,6,0,0,0,12,0,10,0,11,0,0,0,0,6,0,0,0,0,0,8,0,12,0,8,0,1,0,0,5,0,0,8,5,7,10,0,0,0,0,0,0,0,0,0,0,0,0,0,0],"split_type":[0,0,0,0,0,0,0,0,0,0,0,0,0,0,0,0,0,0,0,0,0,0,0,0,0,0,0,0,0,0,0,0,0,0,0,0,0,0,0,0,0,0,0,0,0,0,0,0,0,0,0,0,0,0,0,0,0,0,0,0,0,0,0,0,0,0,0,0,0,0,0,0,0,0,0,0,0,0,0,0,0,0,0,0,0],"sum_hessian":[8.24E2,4.2416666E2,3.998333E2,3.3683334E2,8.733333E1,1.675E1,3.830833E2,8.125E1,2.5558333E2,8.133333E1,6E0,2.1225E2,1.7083333E2,1.3933333E2,1.1625E2,4.25E0,7.708333E1,5.425E1,1.58E2,1.6758333E2,3.25E0,2.7E1,1.1233333E2,1.06666664E2,9.583333E0,7.508333E1,2E0,2.425E1,3E1,9.75E0,1.4825E2,2.5E0,1.6508333E2,3.1583334E1,8.075E1,8.6E1,2.0666666E1,3.75E0,5.833333E0,1.25E0,7.383333E1,3.25E0,2.1E1,7E0,1.4125E2,1.6358333E2,1.5E0,6.333333E0,2.525E1,7.325E1,7.5E0,5.1666665E0,1.55E1,1E0,7.283333E1,1.775E1,3.25E0,1.3775E2,3.5E0,1.6258333E2,1E0,6.825E1,5E0,1.4166666E1,5.8666664E1,1.225E1,5.5E0,6.0416664E1,7.733333E1,9.666666E0,1.5291666E2,6.475E1,3.5E0,1.1916666E1,2.25E0,4.95E1,9.166666E0,4.9916664E1,1.05E1,1.75E0,7.558333E1,3.25E0,6.4166665E0,1.4691666E2,6E0],"tree_param":{"num_deleted":"0","num_feature":"16","num_nodes":"85","size_leaf_vector":"1"}},{"base_weights":[-3.2161644E-3,-3.632196E-1,1.309949E0,-1.0741055E0,4.6167466E-1,-1.20068125E-1,1.3993107E0,-1.474464E0,8.8436216E-2,-1.193599E-1,6.068657E-1,-1.2346299E-1,1.4644688E0,-1.6290578E0,-2.4679832E-1,-1.2005051E-1,4.7188535E-1,3.3013242E-1,1.3132821E0,1.5165951E0,-1.24373324E-1,-1.20462604E-1,-7.8703094E-1,7.138169E-1,-1.2046354E-1,1.8064896E0,-2.270108E-1,-1.6739197E-1,1.1503241E0,1.7026845E0,-1.9898152E0,-1.2108544E-1,1.5641756E0,8.401303E-1,-1.19489245E-1,-1.1993207E-1,1.5171384E0,1.22920066E-1,9.782911E-2,-1.19365014E-1,9.6618944E-1,-1.5126837E0,4.3705648E-1,1.579796E0,-1.4763212E-1,1.7686495E0,-1.2185065E-1,-1.2932174E-1,-1.1913046E-1,1.5963154E0,-1.1893854E-1,-1.19927585E-1,1.7486135E0,1.0816214E0,1.2286108E-1,1.6286604E0,-1.2108421E-1,1.1922892E-1,-1.2152292E-1,7.4231154E-1,-1.23423E-1,1.67765E0,-1.2767859E-1,7.6460576E-1,-1.2532565E-1,1.8439281E0,1.4667253E0,1.4706616E0,1.8319144E0,9.7492024E-2,1.22881204E-1,1.2282754E-1,-1.20909624E-1,1.8322558E0,-1.18837915E-1,-8.6048506E-2,1.5615821E0,-1.2587231E-1,1.7801114E0,-1.2014402E-1,1.7978811E0,1.7131574E0,1.20087855E-1,7.30833E-2,1.20179005E-1,1.5192876E0,-1.1894311E-1,1.2094196E-1,1.6904019E0,1.21666975E-1,9.644008E-2,5.6482606E-2,-1.2048172E-1,-1.2285631E-1,1.1139639E-1,1.1810519E-1,8.488808E-2,1.07704125E-1,1.2169757E-1,8.961089E-2,1.2178958E-1,1.0135938E-1,4.2195287E-2,8.688543E-2,1.2023942E-1],"categories":[],"categories_nodes":[],"categories_segments":[],"categories_sizes":[],"default_left":[0,0,0,0,0,0,0,0,0,0,0,0,0,0,0,0,0,0,0,0,0,0,0,0,0,0,0,0,0,0,0,0,0,0,0,0,0,0,0,0,0,0,0,0,0,0,0,0,0,0,0,0,0,0,0,0,0,0,0,0,0,0,0,0,0,0,0,0,0,0,0,0,0,0,0,0,0,0,0,0,0,0,0,0,0,0,0,0,0,0,0,0,0,0,0,0,0,0,0,0,0,0,0,0,0],"id":1,"left_children":[1,3,5,7,9,-1,11,13,15,-1,17,-1,19,21,23,-1,25,27,29,31,-1,-1,33,35,-1,37,39,41,43,45,47,-1,49,51,-1,-1,53,-1,-1,-1,55,57,59,61,63,65,-1,-1,-1,67,-1,-1,69,71,-1,73,-1,-1,-1,75,-1,77,-1,79,-1,81,83,85,87,-1,-1,-1,-1,89,-1,91,93,-1,95,-1,97,99,-1,-1,-1,101,-1,-1,103,-1,-1,-1,-1,-1,-1,-1,-1,-1,-1,-1,-1,-1,-1,-1,-1],"loss_changes":[3.8305643E2,3.7293903E2,4.9869324E1,1.5900381E2,1.000764E2,0E0,3.6953003E1,4.8205017E1,6.63983E1,0E0,5.416999E1,0E0,2.9686798E1,5.0985535E1,4.50894E1,0E0,6.839038E1,8.1287994E1,1.0033887E2,2.6695282E1,0E0,0E0,9.724963E1,3.7563797E1,0E0,8.305969E-1,9.49029E1,1.0081683E2,4.194026E1,1.6673752E1,1.7929077E-3,0E0,1.7856628E1,5.4418625E1,0E0,0E0,2.4685612E0,0E0,0E0,0E0,5.317758E1,5.2335297E1,6.2158066E1,1.9857529E1,3.1159466E1,1.5222778E0,0E0,0E0,0E0,4.7053833E0,0E0,0E0,6.184616E-1,1.7171402E1,0E0,1.6182846E1,0E0,0E0,0E0,5.1468212E1,0E0,2.0634811E1,0E0,3.4217606E1,0E0,3.032074E-1,1.8113766E0,1.6985977E1,5.3767395E-1,0E0,0E0,0E0,0E0,5.291519E-1,0E0,6.664685E1,2.5745682E1,0E0,1.8690796E0,0E0,6.941986E-2,8.7532425E-1,0E0,0E0,0E0,6.78096E0,0E0,0E0,1.2114182E0,0E0,0E0,0E0,0E0,0E0,0E0,0E0,0E0,0E0,0E0,0E0,0E0,0E0,0E0,0E0,0E0],"parents":[2147483647,0,0,1,1,2,2,3,3,4,4,6,6,7,7,8,8,10,10,12,12,13,13,14,14,16,16,17,17,18,18,19,19,22,22,23,23,25,25,26,26,27,27,28,28,29,29,30,30,32,32,33,33,36,36,40,40,41,41,42,42,43,43,44,44,45,45,49,49,52,52,53,53,55,55,59,59,61,61,63,63,65,65,66,66,67,67,68,68,73,73,75,75,76,76,78,78,80,80,81,81,85,85,88,88],"right_children":[2,4,6,8,10,-1,12,14,16,-1,18,-1,20,22,24,-1,26,28,30,32,-1,-1,34,36,-1,38,40,42,44,46,48,-1,50,52,-1,-1,54,-1,-1,-1,56,58,60,62,64,66,-1,-1,-1,68,-1,-1,70,72,-1,74,-1,-1,-1,76,-1,78,-1,80,-1,82,84,86,88,-1,-1,-1,-1,90,-1,92,94,-1,96,-1,98,100,-1,-1,-1,102,-1,-1,104,-1,-1,-1,-1,-1,-1,-1,-1,-1,-1,-1,-1,-1,-1,-1,-1],"split_conditions":[1.184469E0,3.0669147E-1,-8.41592E-1,8.671297E-1,-1.1227725E0,-1.20068125E-1,-1.0799663E0,1.6051304E0,-1.1330955E0,-1.193599E-1,1.1839211E0,-1.2346299E-1,1.4195977E0,4.1504636E-1,-4.1180775E-1,-1.2005051E-1,-1.0778092E0,8.563676E-1,-2.709022E-1,-1.3137014E0,-1.24373324E-1,-1.20462604E-1,2.731582E-1,-7.053205E-1,-1.2046354E-1,-6.2788635E-1,-1.6247982E-2,8.7086636E-1,1.024669E0,3.2442796E-1,1.8686665E0,-1.2108544E-1,2.0882366E0,1.9401677E-1,-1.19489245E-1,-1.1993207E-1,9.7232676E-1,1.22920066E-1,9.782911E-2,-1.19365014E-1,-3.7432373E-1,-2.6564205E0,6.825899E-2,4.5835418E-1,-3.5283747E-1,9.5679325E-1,-1.2185065E-1,-1.2932174E-1,-1.1913046E-1,1.2831823E0,-1.1893854E-1,-1.19927585E-1,6.8408406E-1,1.606807E0,1.2286108E-1,-4.6589416E-2,-1.2108421E-1,1.1922892E-1,-1.2152292E-1,-2.2407727E-1,-1.23423E-1,-5.181652E-1,-1.2767859E-1,-5.3283286E-1,-1.2532565E-1,-3.0083925E-1,4.5834756E-1,1.0563513E0,-6.3970126E-2,9.7492024E-2,1.22881204E-1,1.2282754E-1,-1.20909624E-1,-9.4359505E-1,-1.18837915E-1,-1.1297287E0,7.4011437E-3,-1.2587231E-1,-2.9379562E-1,-1.2014402E-1,1.3830752E0,-7.8320336E-1,1.20087855E-1,7.30833E-2,1.20179005E-1,7.673051E-1,-1.1894311E-1,1.2094196E-1,1.3062272E0,1.21666975E-1,9.644008E-2,5.6482606E-2,-1.2048172E-1,-1.2285631E-1,1.1139639E-1,1.1810519E-1,8.488808E-2,1.07704125E-1,1.2169757E-1,8.961089E-2,1.2178958E-1,1.0135938E-1,4.2195287E-2,8.688543E-2,1.2023942E-1],"split_indices":[6,8,7,9,10,0,1,4,12,0,7,0,1,6,10,0,12,1,4,4,0,0,5,10,0,5,8,12,0,1,7,0,10,5,0,0,1,0,0,0,7,0,0,9,5,12,0,0,0,12,0,0,0,4,0,0,0,0,0,1,0,9,0,6,0,6,0,0,9,0,0,0,0,0,0,0,4,0,7,0,0,0,0,0,0,8,0,0,10,0,0,0,0,0,0,0,0,0,0,0,0,0,0,0,0],"split_type":[0,0,0,0,0,0,0,0,0,0,0,0,0,0,0,0,0,0,0,0,0,0,0,0,0,0,0,0,0,0,0,0,0,0,0,0,0,0,0,0,0,0,0,0,0,0,0,0,0,0,0,0,0,0,0,0,0,0,0,0,0,0,0,0,0,0,0,0,0,0,0,0,0,0,0,0,0,0,0,0,0,0,0,0,0,0,0,0,0,0,0,0,0,0,0,0,0,0,0,0,0,0,0,0,0],"sum_hessian":[8.103035E2,6.359629E2,1.7434062E2,3.4159354E2,2.943694E2,4.731117E0,1.696095E2,2.5409627E2,8.749727E1,1.7180712E1,2.7718866E2,3.2383552E0,1.6637114E2,2.2567014E2,2.8426136E1,1.4194226E1,7.330304E1,1.9917763E2,7.801103E1,1.6387921E2,2.4919238E0,1.7110365E2,5.4566483E1,1.796537E1,1.0460767E1,2.5198603E1,4.810444E1,1.2396718E2,7.521046E1,6.978714E1,8.2238865E0,2.2429416E0,1.6163628E2,2.1947685E1,3.2618797E1,4.233661E0,1.3731709E1,1.6898706E1,8.299896E0,2.0168638E1,2.79358E1,3.8436905E1,8.5530266E1,5.651771E1,1.8692741E1,6.8541916E1,1.2452273E0,5.733895E0,2.4899912E0,1.6014229E2,1.4939883E0,5.4782567E0,1.6469429E1,6.7391405E0,6.992568E0,2.2705057E1,5.2307434E0,4.0669355E0,3.436997E1,7.581582E1,9.714448E0,5.502147E1,1.4962451E0,1.2462709E1,6.230033E0,5.4833893E1,1.3708025E1,1.04470856E2,5.5671432E1,7.7287188E0,8.74071E0,5.2444263E0,1.4947143E0,2.1460075E1,1.2449808E0,3.769255E1,3.8123272E1,1.4952792E0,5.3526188E1,3.486533E0,8.976176E0,1.4715787E1,4.0118103E1,7.892615E0,5.81541E0,1.0297686E2,1.493996E0,3.664719E1,1.9024242E1,1.6883087E1,4.576989E0,2.4494833E1,1.3197718E1,1.9923823E0,3.613089E1,4.529289E1,8.233301E0,4.8999887E0,4.0761876E0,5.981099E0,8.734688E0,9.4421455E1,8.555404E0,7.3934216E0,1.163082E1],"tree_param":{"num_deleted":"0","num_feature":"16","num_nodes":"105","size_leaf_vector":"1"}},{"base_weights":[-8.773819E-3,-3.4486827E-1,1.2376108E0,-1.0299511E0,4.1162375E-1,-1.1357898E-1,1.3357693E0,-1.13253236E-1,-8.0268854E-1,-1.13075644E-1,5.715661E-1,1.3823353E0,-1.1278041E-1,1.4302647E-2,-1.2206562E0,-1.1727957E-1,6.7723566E-1,-1.204672E-1,1.4224625E0,-1.2068524E0,8.2665837E-1,-1.13868944E-1,-7.542304E-1,1.2515883E0,3.918735E-1,1.4531789E0,-1.201489E-1,-1.1472239E-1,3.440035E-1,1.555836E0,-1.8794587E-1,1.3191074E0,-1.2945998E0,-1.127235E-1,1.3454049E0,-4.6596434E-2,1.0047872E0,-1.1786435E-1,1.4788537E0,-1.1499572E-1,1.059754E-1,1.701474E0,-1.1883127E-1,1.16076775E-1,-1.1588552E-1,1.6231822E0,-1.1417344E-1,-1.5664436E0,3.1836715E-1,1.5370346E0,1.1118297E-1,6.9348824E-1,-1.0491241E0,-1.1838298E-1,1.2826297E0,1.3416167E0,1.7316685E0,8.712406E-2,1.1648218E-1,9.058208E-2,1.16001315E-1,-1.619076E-1,-1.1399491E-1,1.0558592E-1,-1.1376505E-1,1.1182219E0,1.71531E0,-1.1650242E-1,1.04566485E-1,-5.619047E-1,1.3820142E0,-1.3631796E0,8.0845185E-2,-1.2270137E-1,1.3785896E0,1.3967263E0,-1.2054249E-1,1.6129744E0,1.1444686E-1,1.027803E-1,-1.14028595E-1,1.1097865E-1,-1.1729018E-1,1.1448696E-1,8.882618E-2,-1.1555752E-1,1.0698705E-1,1.0144607E-1,-1.16320245E-1,-1.174921E-1,5.2940916E-2,9.238046E-2,-1.2462335E-1,9.1852315E-2,-1.2509678E-1,1.13279775E-1,8.187499E-2],"categories":[],"categories_nodes":[],"categories_segments":[],"categories_sizes":[],"default_left":[0,0,0,0,0,0,0,0,0,0,0,0,0,0,0,0,0,0,0,0,0,0,0,0,0,0,0,0,0,0,0,0,0,0,0,0,0,0,0,0,0,0,0,0,0,0,0,0,0,0,0,0,0,0,0,0,0,0,0,0,0,0,0,0,0,0,0,0,0,0,0,0,0,0,0,0,0,0,0,0,0,0,0,0,0,0,0,0,0,0,0,0,0,0,0,0,0],"id":2,"left_children":[1,3,5,7,9,-1,11,-1,13,-1,15,17,-1,19,21,-1,23,-1,25,27,29,-1,31,33,35,37,-1,-1,39,41,43,45,47,-1,49,51,53,-1,55,-1,-1,57,-1,-1,-1,59,-1,61,63,65,67,69,71,-1,73,75,77,-1,-1,-1,-1,79,-1,-1,-1,81,83,-1,-1,85,87,89,-1,-1,91,93,-1,95,-1,-1,-1,-1,-1,-1,-1,-1,-1,-1,-1,-1,-1,-1,-1,-1,-1,-1,-1],"loss_changes":[3.4059988E2,3.3190796E2,5.12995E1,5.7562042E1,1.06725296E2,0E0,2.4237396E1,0E0,8.819972E1,0E0,7.2492775E1,2.1685883E1,0E0,8.6694786E1,4.563672E1,0E0,4.452793E1,0E0,1.6574768E1,3.2512047E1,3.8846714E1,0E0,1.0553709E2,2.5613373E1,4.8810173E1,1.3705475E1,0E0,0E0,2.7812437E1,1.5247658E1,7.2451225E1,1.8457142E1,3.2779396E1,0E0,2.0675873E1,7.853794E1,6.0379814E1,0E0,5.5211487E0,0E0,0E0,1.2516022E0,0E0,0E0,0E0,6.7598724E-1,0E0,2.0567993E1,3.0573069E1,5.6237335E0,3.5174126E1,5.26389E1,3.2795883E1,0E0,2.1302353E1,1.8529404E1,4.3833923E-1,0E0,0E0,0E0,0E0,2.6136536E1,0E0,0E0,0E0,4.2273964E1,1.4441986E0,0E0,0E0,6.0971375E1,2.729818E1,4.243975E1,0E0,0E0,1.7157257E1,1.7221893E1,0E0,1.1388321E0,0E0,0E0,0E0,0E0,0E0,0E0,0E0,0E0,0E0,0E0,0E0,0E0,0E0,0E0,0E0,0E0,0E0,0E0,0E0],"parents":[2147483647,0,0,1,1,2,2,3,3,4,4,6,6,8,8,10,10,11,11,13,13,14,14,16,16,18,18,19,19,20,20,22,22,23,23,24,24,25,25,28,28,29,29,30,30,31,31,32,32,34,34,35,35,36,36,38,38,41,41,45,45,47,47,48,48,49,49,50,50,51,51,52,52,54,54,55,55,56,56,61,61,65,65,66,66,69,69,70,70,71,71,74,74,75,75,77,77],"right_children":[2,4,6,8,10,-1,12,-1,14,-1,16,18,-1,20,22,-1,24,-1,26,28,30,-1,32,34,36,38,-1,-1,40,42,44,46,48,-1,50,52,54,-1,56,-1,-1,58,-1,-1,-1,60,-1,62,64,66,68,70,72,-1,74,76,78,-1,-1,-1,-1,80,-1,-1,-1,82,84,-1,-1,86,88,90,-1,-1,92,94,-1,96,-1,-1,-1,-1,-1,-1,-1,-1,-1,-1,-1,-1,-1,-1,-1,-1,-1,-1,-1],"split_conditions":[1.184469E0,3.0669147E-1,-8.41592E-1,-7.508055E-1,-1.1227725E0,-1.1357898E-1,2.0882366E0,-1.13253236E-1,-2.994377E-1,-1.13075644E-1,-1.1389809E0,-1.4894589E0,-1.1278041E-1,-2.4910432E-1,4.7856162E-4,-1.1727957E-1,5.22551E-1,-1.204672E-1,1.4195977E0,-3.4611323E-1,-1.066023E0,-1.13868944E-1,5.753783E-2,-8.773914E-1,1.3015E0,-1.0173851E0,-1.201489E-1,-1.1472239E-1,4.7295782E-1,2.7903652E-1,-2.2377172E0,2.5297496E-1,1.8424689E0,-1.127235E-1,2.1607257E-1,-2.534796E-1,-3.7683937E-1,-1.1786435E-1,1.1599537E0,-1.1499572E-1,1.059754E-1,4.0173405E-1,-1.1883127E-1,1.16076775E-1,-1.1588552E-1,2.1875E-1,-1.1417344E-1,-2.6787966E-2,1.8781115E0,4.5966277E-1,7.551334E-1,5.615164E-1,2.144738E0,-1.1838298E-1,-1.2881403E0,7.551334E-1,1.5321617E0,8.712406E-2,1.1648218E-1,9.058208E-2,1.16001315E-1,-1.3484017E0,-1.1399491E-1,1.0558592E-1,-1.1376505E-1,-9.0694785E-1,-1.6726813E-1,-1.1650242E-1,1.04566485E-1,-3.0083925E-1,8.0299836E-1,1.3367698E0,8.0845185E-2,-1.2270137E-1,1.1019092E0,1.6692289E0,-1.2054249E-1,9.9191797E-1,1.1444686E-1,1.027803E-1,-1.14028595E-1,1.1097865E-1,-1.1729018E-1,1.1448696E-1,8.882618E-2,-1.1555752E-1,1.0698705E-1,1.0144607E-1,-1.16320245E-1,-1.174921E-1,5.2940916E-2,9.238046E-2,-1.2462335E-1,9.1852315E-2,-1.2509678E-1,1.13279775E-1,8.187499E-2],"split_indices":[6,8,7,7,10,0,10,0,7,0,3,12,0,8,1,0,8,0,1,7,11,0,1,6,12,1,0,0,5,12,1,7,0,0,5,6,5,0,12,0,0,1,0,0,0,0,0,0,0,8,1,3,3,0,0,1,8,0,0,0,0,3,0,0,0,1,3,0,0,6,8,1,0,0,10,10,0,5,0,0,0,0,0,0,0,0,0,0,0,0,0,0,0,0,0,0,0],"split_type":[0,0,0,0,0,0,0,0,0,0,0,0,0,0,0,0,0,0,0,0,0,0,0,0,0,0,0,0,0,0,0,0,0,0,0,0,0,0,0,0,0,0,0,0,0,0,0,0,0,0,0,0,0,0,0,0,0,0,0,0,0,0,0,0,0,0,0,0,0,0,0,0,0,0,0,0,0,0,0,0,0,0,0,0,0,0,0,0,0,0,0,0,0,0,0,0,0],"sum_hessian":[8.130976E2,6.4041486E2,1.7268274E2,3.3607632E2,3.0433853E2,5.420801E0,1.6726195E2,7.7823906E1,2.582524E2,2.0684742E1,2.836538E2,1.6479974E2,2.462194E0,8.7396255E1,1.7085616E2,1.1868133E1,2.7178568E2,1.9884846E0,1.6281126E2,3.4908215E1,5.2488037E1,7.665812E1,9.419803E1,9.020032E1,1.8158534E2,1.6131984E2,1.4914154E0,2.5172153E1,9.736062E0,3.054563E1,2.1942408E1,1.9470812E1,7.472722E1,2.7078538E0,8.749246E1,1.0584702E2,7.573832E1,1.2384527E0,1.6008139E2,3.704032E0,6.0320296E0,2.9303757E1,1.2418728E0,9.830606E0,1.21118E1,1.7743677E1,1.7271348E0,6.3954983E1,1.0772234E1,7.572634E1,1.176612E1,6.0887997E1,4.495903E1,6.68246E0,6.905586E1,1.0378604E2,5.6295357E1,8.47367E0,2.0830088E1,9.070627E0,8.673049E0,8.978929E0,5.4976055E1,6.5825963E0,4.1896377E0,2.2628204E1,5.309814E1,5.186711E0,6.579409E0,2.1560833E1,3.9327164E1,3.9607983E1,5.351047E0,1.9978188E0,6.705804E1,1.0205382E2,1.7322212E0,2.1146412E1,3.514894E1,4.2936354E0,4.685293E0,1.8667097E1,3.9611082E0,4.149976E1,1.159838E1,1.3824298E1,7.7365336E0,3.68544E1,2.4727623E0,3.241883E1,7.1891527E0,6.5558846E1,1.4991926E0,1.00560036E2,1.493781E0,1.3797199E1,7.3492136E0],"tree_param":{"num_deleted":"0","num_feature":"16","num_nodes":"97","size_leaf_vector":"1"}},{"base_weights":[1.3364407E-3,-7.2641593E-1,5.3328717E-1,-1.2167597E0,-9.547435E-2,-1.09576136E-1,6.452696E-1,-1.5634714E-1,-1.421016E0,-1.2923974E0,2.7327973E-1,-6.579589E-1,8.095168E-1,-1.0867465E-1,1.3118942E0,-1.0874036E-1,-1.0494125E0,-1.7329997E0,9.8864025E-1,5.2006215E-1,-1.1031367E-1,1.9600964E-1,-1.7493215E0,4.9739352E-1,1.2233979E0,1.6198217E0,-1.1249202E-1,2.8250292E-1,-1.08130105E-1,-1.0895757E-1,-1.2038001E-1,1.0966999E-1,-1.1202067E-1,-1.0769457E-1,7.562423E-1,-1.1046891E-1,7.8128093E-1,-1.0937225E-1,-1.158487E-1,6.3487875E-1,-1.1109191E-1,-1.08199775E-1,1.2908832E0,1.0969164E-1,9.581004E-2,9.806929E-1,-1.0990111E-1,-1.7761481E0,8.809317E-1,1.3456315E0,-1.1332638E-1,2.1641254E-1,1.2199123E0,1.3464786E0,-1.16007484E-1,-1.0818183E-1,1.1058219E-1,-1.0751804E-1,-1.2566918E-1,-1.0754157E-1,1.0061314E0,-1.09123014E-1,1.5704621E0,7.0479053E-1,-1.2133406E0,-1.139743E-1,1.3483332E0,-1.2168432E-1,1.3910218E0,1.1222696E0,-1.1167747E-1,1.09525576E-1,7.828785E-2,8.821235E-1,-1.1022451E-1,-1.7739216E0,7.381923E-2,-1.0974653E-1,1.4752156E0,1.4241474E0,-1.1031715E-1,7.4681334E-2,-1.15897976E-1,6.380888E-2,-1.1057262E-1,-1.10726E-1,-1.3012671E-1,-1.1388716E-1,9.7422495E-2,9.7040884E-2,7.1973465E-2],"categories":[],"categories_nodes":[],"categories_segments":[],"categories_sizes":[],"default_left":[0,0,0,0,0,0,0,0,0,0,0,0,0,0,0,0,0,0,0,0,0,0,0,0,0,0,0,0,0,0,0,0,0,0,0,0,0,0,0,0,0,0,0,0,0,0,0,0,0,0,0,0,0,0,0,0,0,0,0,0,0,0,0,0,0,0,0,0,0,0,0,0,0,0,0,0,0,0,0,0,0,0,0,0,0,0,0,0,0,0,0],"id":3,"left_children":[1,3,5,7,9,-1,11,13,15,17,19,21,23,-1,25,-1,27,29,31,33,-1,35,37,39,41,43,-1,45,-1,-1,-1,-1,-1,-1,47,-1,49,-1,-1,51,-1,-1,53,-1,-1,55,-1,57,59,61,-1,63,65,67,-1,-1,-1,-1,-1,-1,69,-1,71,73,75,-1,77,-1,79,81,-1,-1,-1,83,-1,85,-1,-1,87,89,-1,-1,-1,-1,-1,-1,-1,-1,-1,-1,-1],"loss_changes":[3.174358E2,1.0711008E2,1.1984386E2,4.2182007E1,6.6847E1,0E0,9.6615906E1,7.188885E1,1.7687012E1,3.5859615E1,5.7433716E1,4.709246E1,5.176407E1,0E0,1.5371847E1,0E0,6.2609726E1,4.2617798E-2,1.174074E1,5.3966644E1,0E0,3.2095474E1,6.187439E-3,7.059823E1,3.404294E1,1.4118576E-1,0E0,3.325866E1,0E0,0E0,0E0,0E0,0E0,0E0,2.9415298E1,0E0,3.1512604E1,0E0,0E0,5.2708656E1,0E0,0E0,2.9196136E1,0E0,0E0,3.591539E1,0E0,3.377056E-2,2.8625786E1,1.229195E1,0E0,8.767152E1,3.4766815E1,2.4050446E1,0E0,0E0,0E0,0E0,0E0,0E0,2.7196205E1,0E0,8.36216E-1,4.0508827E1,4.2584705E1,0E0,3.3625916E1,0E0,1.6918549E1,1.29605255E1,0E0,0E0,0E0,2.8154556E1,0E0,1.714859E-1,0E0,0E0,1.605716E1,4.8718567E0,0E0,0E0,0E0,0E0,0E0,0E0,0E0,0E0,0E0,0E0,0E0],"parents":[2147483647,0,0,1,1,2,2,3,3,4,4,6,6,7,7,8,8,9,9,10,10,11,11,12,12,14,14,16,16,17,17,18,18,19,19,21,21,22,22,23,23,24,24,25,25,27,27,34,34,36,36,39,39,42,42,45,45,47,47,48,48,49,49,51,51,52,52,53,53,60,60,62,62,63,63,64,64,66,66,68,68,69,69,73,73,75,75,78,78,79,79],"right_children":[2,4,6,8,10,-1,12,14,16,18,20,22,24,-1,26,-1,28,30,32,34,-1,36,38,40,42,44,-1,46,-1,-1,-1,-1,-1,-1,48,-1,50,-1,-1,52,-1,-1,54,-1,-1,56,-1,58,60,62,-1,64,66,68,-1,-1,-1,-1,-1,-1,70,-1,72,74,76,-1,78,-1,80,82,-1,-1,-1,84,-1,86,-1,-1,88,90,-1,-1,-1,-1,-1,-1,-1,-1,-1,-1,-1],"split_conditions":[5.1739268E-2,1.9401677E-1,-1.1652433E0,-1.4116656E0,-2.7232593E-1,-1.09576136E-1,-6.346955E-1,-1.9301483E-1,2.8316883E-2,1.6834323E0,9.395955E-1,-4.209488E-1,8.8047814E-1,-1.0867465E-1,2.3578148E-1,-1.0874036E-1,2.5297496E-1,1.3869764E0,1.7950088E0,-8.41592E-1,-1.1031367E-1,4.9201E-1,3.0948538E-1,7.4245757E-1,3.0669147E-1,-9.4359505E-1,-1.1249202E-1,-6.2788635E-1,-1.08130105E-1,-1.0895757E-1,-1.2038001E-1,1.0966999E-1,-1.1202067E-1,-1.0769457E-1,-1.2826161E0,-1.1046891E-1,8.821363E-1,-1.0937225E-1,-1.158487E-1,4.4052625E-1,-1.1109191E-1,-1.08199775E-1,1.3536203E0,1.0969164E-1,9.581004E-2,-6.8756676E-1,-1.0990111E-1,8.485552E-1,-1.4779738E0,-3.8851598E-1,-1.1332638E-1,-1.0170062E-1,-7.2835445E-1,-3.2140186E-1,-1.16007484E-1,-1.0818183E-1,1.1058219E-1,-1.0751804E-1,-1.2566918E-1,-1.0754157E-1,-2.406059E-1,-1.09123014E-1,-6.5133855E-2,6.2318556E-2,1.7633183E0,-1.139743E-1,-9.489929E-1,-1.2168432E-1,2.0584462E0,1.2031819E0,-1.1167747E-1,1.09525576E-1,7.828785E-2,8.525078E-2,-1.1022451E-1,1.1969072E0,7.381923E-2,-1.0974653E-1,-5.5001634E-1,8.013986E-2,-1.1031715E-1,7.4681334E-2,-1.15897976E-1,6.380888E-2,-1.1057262E-1,-1.10726E-1,-1.3012671E-1,-1.1388716E-1,9.7422495E-2,9.7040884E-2,7.1973465E-2],"split_indices":[8,5,7,11,0,0,3,8,7,5,10,13,10,0,13,0,7,5,5,7,0,0,5,11,8,0,0,5,0,0,0,0,0,0,13,0,1,0,0,0,0,0,13,0,0,5,0,5,8,5,0,10,13,3,0,0,0,0,0,0,8,0,11,0,8,0,5,0,7,3,0,0,0,7,0,5,0,0,11,0,0,0,0,0,0,0,0,0,0,0,0],"split_type":[0,0,0,0,0,0,0,0,0,0,0,0,0,0,0,0,0,0,0,0,0,0,0,0,0,0,0,0,0,0,0,0,0,0,0,0,0,0,0,0,0,0,0,0,0,0,0,0,0,0,0,0,0,0,0,0,0,0,0,0,0,0,0,0,0,0,0,0,0,0,0,0,0,0,0,0,0,0,0,0,0,0,0,0,0,0,0,0,0,0,0],"sum_hessian":[8.1998004E2,3.4625494E2,4.737251E2,1.9482639E2,1.5142854E2,2.2366486E1,4.513586E2,3.1474735E1,1.6335165E2,3.5671535E1,1.1575701E2,5.0511066E1,4.0084753E2,1.5286698E1,1.6188038E1,9.147626E1,7.18754E1,2.990064E1,5.770896E0,1.03108925E2,1.26480875E1,2.8332281E1,2.2178785E1,2.2853027E2,1.7231726E2,1.4721615E1,1.4664223E0,2.3661093E1,4.8214306E1,2.7186499E1,2.7141411E0,4.5529385E0,1.2179575E0,9.924526E0,9.31844E1,6.5722713E0,2.176001E1,1.6527567E1,5.6512194E0,2.1535994E2,1.3170333E1,3.8787787E0,1.6843848E2,7.397591E0,7.3240237E0,1.7573324E1,6.0877676E0,4.3687468E0,8.881565E1,1.7841005E1,3.9190047E0,1.2556408E2,8.979586E1,1.6549144E2,2.9470317E0,3.878724E0,1.36946E1,3.1464863E0,1.2222607E0,4.1141553E0,8.47015E1,1.2161173E0,1.6624887E1,9.3599625E1,3.1964457E1,3.6647372E0,8.613113E1,2.2251887E0,1.6326625E2,8.1291336E1,3.410163E0,1.1373134E1,5.251754E0,8.7264656E1,6.3349648E0,2.5866503E1,6.0979548E0,3.4075332E0,8.2723595E1,1.6155927E2,1.7069912E0,7.982978E1,1.4615502E0,8.336131E1,3.903346E0,2.3383242E1,2.4832606E0,1.4724836E0,8.125111E1,1.1880023E2,4.2759033E1],"tree_param":{"num_deleted":"0","num_feature":"16","num_nodes":"91","size_leaf_vector":"1"}},{"base_weights":[-5.6426404E-3,-7.057832E-1,5.1400316E-1,-1.0518379E0,9.7774535E-1,-1.04985505E-1,6.211387E-1,-1.1647621E0,9.6960044E-1,1.2355212E0,-1.816965E0,-5.382222E-1,7.852797E-1,-1.3007448E0,-4.059033E-2,1.0534627E-1,-1.04319856E-1,1.3769608E0,-1.0887312E-1,-1.1092738E-1,-1.24851614E-1,-1.1396247E0,9.04382E-1,5.5050087E-1,1.3082246E0,-1.6466309E0,-8.8432974E-1,8.9243895E-1,-1.7021616E0,1.4555577E0,-1.1239542E-1,-1.0613175E-1,6.244525E-1,-1.0486345E-1,1.5279214E0,5.948761E-1,-1.8001513E0,-1.1986162E-1,1.3492036E0,-1.0439137E-1,-1.1918401E-1,9.469714E-2,-1.070543E0,-1.0432741E-1,1.4545004E0,-1.2183464E-1,-1.0615513E-1,-1.026464E-1,1.5316434E0,1.048398E-1,-1.1017545E-1,1.0473663E-1,8.831599E-2,2.9676723E-1,9.4286615E-1,-1.0927763E-1,-1.2829567E-1,8.74482E-1,1.5131376E0,-1.0425539E-1,-7.8698766E-1,7.737855E-2,1.05935164E-1,1.6191934E0,9.465862E-1,-1.0689022E-1,5.7855165E-1,1.1729158E0,-4.5875035E-2,1.3496506E0,-1.8716226E0,1.5720417E0,-1.1719633E-1,4.5109177E-1,-1.3296202E0,1.0634198E-1,1.5221015E0,-1.2101964E-1,1.0487127E-1,-1.0565795E-1,8.02092E-1,1.233736E0,-1.1438374E-1,-1.10787265E-1,1.038425E0,1.5369316E0,-1.10564865E-1,-1.2569508E-1,-1.09676234E-1,1.6230714E0,9.328932E-1,-1.05066665E-1,7.820651E-2,-4.3894458E-3,-1.04913205E-1,1.06279574E-1,8.6349085E-2,5.927581E-2,-1.126281E-1,-1.0621767E-1,8.070618E-2,1.0099328E-1,-1.1614688E-1,7.0290945E-2,1.0666282E-1,9.5988944E-2,1.0607131E-1,-1.3695705E-1,1.069007E-1],"categories":[],"categories_nodes":[],"categories_segments":[],"categories_sizes":[],"default_left":[0,0,0,0,0,0,0,0,0,0,0,0,0,0,0,0,0,0,0,0,0,0,0,0,0,0,0,0,0,0,0,0,0,0,0,0,0,0,0,0,0,0,0,0,0,0,0,0,0,0,0,0,0,0,0,0,0,0,0,0,0,0,0,0,0,0,0,0,0,0,0,0,0,0,0,0,0,0,0,0,0,0,0,0,0,0,0,0,0,0,0,0,0,0,0,0,0,0,0,0,0,0,0,0,0,0,0,0,0],"id":4,"left_children":[1,3,5,7,9,-1,11,13,15,17,19,21,23,25,27,-1,-1,29,-1,-1,-1,31,33,35,37,39,41,43,45,47,-1,-1,49,-1,51,53,55,-1,57,-1,-1,-1,59,-1,61,-1,-1,-1,63,-1,-1,-1,-1,65,67,-1,-1,69,71,-1,73,-1,-1,75,77,-1,79,81,83,85,87,89,-1,91,93,-1,95,-1,-1,-1,97,99,-1,-1,101,103,-1,-1,-1,105,107,-1,-1,-1,-1,-1,-1,-1,-1,-1,-1,-1,-1,-1,-1,-1,-1,-1,-1],"loss_changes":[2.8869962E2,1.9694864E2,1.0576449E2,6.40134E1,4.1515274E1,0E0,8.259392E1,4.0585693E1,2.6732983E1,2.2019493E1,1.068306E-2,4.6694572E1,4.6658707E1,3.4097076E1,4.4452885E1,0E0,0E0,1.245562E1,0E0,0E0,0E0,3.5673927E1,2.5230312E1,2.7359253E1,1.5422913E1,2.9571533E-2,4.7564926E1,2.615978E1,2.848816E-2,1.1486641E1,0E0,0E0,2.132685E1,0E0,1.7959023E-1,2.6704521E1,4.418373E-2,0E0,9.025299E0,0E0,0E0,0E0,1.6136711E1,0E0,7.2756577E-1,0E0,0E0,0E0,2.4288712E0,0E0,0E0,0E0,0E0,7.7411285E1,2.703749E1,0E0,0E0,3.897103E1,1.7100067E1,0E0,4.4793404E1,0E0,0E0,1.9198608E-1,1.2591451E1,0E0,6.0886375E1,1.7435013E1,4.1313538E1,1.4742409E1,2.873516E-2,2.7432098E0,0E0,3.33916E1,1.8852135E1,0E0,3.4426117E-1,0E0,0E0,0E0,3.74439E1,1.0306976E1,0E0,0E0,2.167495E1,1.4481697E0,0E0,0E0,0E0,3.829956E-1,1.4608753E1,0E0,0E0,0E0,0E0,0E0,0E0,0E0,0E0,0E0,0E0,0E0,0E0,0E0,0E0,0E0,0E0,0E0,0E0],"parents":[2147483647,0,0,1,1,2,2,3,3,4,4,6,6,7,7,8,8,9,9,10,10,11,11,12,12,13,13,14,14,17,17,21,21,22,22,23,23,24,24,25,25,26,26,27,27,28,28,29,29,32,32,34,34,35,35,36,36,38,38,42,42,44,44,48,48,53,53,54,54,57,57,58,58,60,60,63,63,64,64,66,66,67,67,68,68,69,69,70,70,71,71,73,73,74,74,76,76,80,80,81,81,84,84,85,85,89,89,90,90],"right_children":[2,4,6,8,10,-1,12,14,16,18,20,22,24,26,28,-1,-1,30,-1,-1,-1,32,34,36,38,40,42,44,46,48,-1,-1,50,-1,52,54,56,-1,58,-1,-1,-1,60,-1,62,-1,-1,-1,64,-1,-1,-1,-1,66,68,-1,-1,70,72,-1,74,-1,-1,76,78,-1,80,82,84,86,88,90,-1,92,94,-1,96,-1,-1,-1,98,100,-1,-1,102,104,-1,-1,-1,106,108,-1,-1,-1,-1,-1,-1,-1,-1,-1,-1,-1,-1,-1,-1,-1,-1,-1,-1],"split_conditions":[5.1739268E-2,1.2579107E0,-1.1652433E0,1.934488E0,-4.037753E-1,-1.04985505E-1,-6.346955E-1,1.6051304E0,-1.0126066E0,8.2171017E-1,9.8067844E-1,1.4090751E0,1.1969072E0,1.6312739E-1,-4.1180775E-1,1.0534627E-1,-1.04319856E-1,8.1513786E-1,-1.0887312E-1,-1.1092738E-1,-1.24851614E-1,1.6051304E0,-5.5118192E-2,9.6856475E-1,-9.1468817E-1,1.178978E0,1.8583715E-1,-7.053205E-1,1.6436906E0,-9.970062E-1,-1.1239542E-1,-1.0613175E-1,1.6185427E0,-1.0486345E-1,-2.3418941E0,6.008875E-1,1.1199877E0,-1.1986162E-1,6.237433E-1,-1.0439137E-1,-1.1918401E-1,9.469714E-2,-3.0302814E-1,-1.0432741E-1,-2.4230559E-1,-1.2183464E-1,-1.0615513E-1,-1.026464E-1,1.5186625E0,1.048398E-1,-1.1017545E-1,1.0473663E-1,8.831599E-2,3.2878733E-1,8.573882E-1,-1.0927763E-1,-1.2829567E-1,1.1597372E-2,1.2249616E0,-1.0425539E-1,-3.74989E-1,7.737855E-2,1.05935164E-1,-3.3648714E-1,-5.9753895E-1,-1.0689022E-1,-8.3277726E-1,1.6279064E0,1.3521582E0,1.1172614E0,8.1533444E-1,1.7963061E0,-1.1719633E-1,-4.325507E-1,-1.4592774E0,1.0634198E-1,-6.6668695E-1,-1.2101964E-1,1.0487127E-1,-1.0565795E-1,3.9816812E-1,-1.7143911E0,-1.1438374E-1,-1.10787265E-1,1.4070404E0,7.776387E-1,-1.10564865E-1,-1.2569508E-1,-1.09676234E-1,1.2831823E0,1.2224486E0,-1.05066665E-1,7.820651E-2,-4.3894458E-3,-1.04913205E-1,1.06279574E-1,8.6349085E-2,5.927581E-2,-1.126281E-1,-1.0621767E-1,8.070618E-2,1.0099328E-1,-1.1614688E-1,7.0290945E-2,1.0666282E-1,9.5988944E-2,1.0607131E-1,-1.3695705E-1,1.069007E-1],"split_indices":[8,6,7,9,8,0,3,4,6,9,9,12,5,9,10,0,0,10,0,0,0,4,6,5,4,6,9,10,4,7,0,0,4,0,3,3,12,0,12,0,0,0,7,0,8,0,0,0,5,0,0,0,0,8,8,0,0,12,3,0,10,0,0,9,8,0,6,9,7,4,3,5,0,10,8,0,7,0,0,0,3,4,0,0,7,3,0,0,0,12,3,0,0,0,0,0,0,0,0,0,0,0,0,0,0,0,0,0,0],"split_type":[0,0,0,0,0,0,0,0,0,0,0,0,0,0,0,0,0,0,0,0,0,0,0,0,0,0,0,0,0,0,0,0,0,0,0,0,0,0,0,0,0,0,0,0,0,0,0,0,0,0,0,0,0,0,0,0,0,0,0,0,0,0,0,0,0,0,0,0,0,0,0,0,0,0,0,0,0,0,0,0,0,0,0,0,0,0,0,0,0,0,0,0,0,0,0,0,0,0,0,0,0,0,0,0,0,0,0,0,0],"sum_hessian":[7.9350604E2,3.3805307E2,4.5545294E2,2.804185E2,5.7634586E1,2.1444862E1,4.340081E2,2.6558722E2,1.4831257E1,5.277106E1,4.8635225E0,5.3817757E1,3.8019034E2,2.3691948E2,2.8667746E1,1.173678E1,3.0944765E0,5.036061E1,2.4104507E0,3.3698196E0,1.493703E0,3.7988285E1,1.5829474E1,2.624036E2,1.1778674E2,1.2940549E2,1.0751399E2,1.835475E1,1.0312996E1,4.9137062E1,1.2235497E0,2.9188961E1,8.799322E0,3.1007352E0,1.272874E1,2.5754636E2,4.857231E0,1.4875922E0,1.1629916E2,1.2819772E2,1.2077612E0,7.809522E0,9.9704475E1,3.326704E0,1.5028046E1,1.2082003E0,9.104795E0,1.1839389E0,4.795312E1,6.1343503E0,2.6649718E0,6.688192E0,6.040548E0,1.3873146E2,1.1881489E2,3.616378E0,1.2408531E0,2.98693E1,8.6429855E1,3.304428E1,6.6660194E1,7.1800594E0,7.8479867E0,4.169523E1,6.2578955E0,1.7275217E1,1.2145625E2,9.639686E1,2.2418036E1,2.5466682E1,4.4026184E0,8.494364E1,1.486209E0,2.030734E1,4.635285E1,2.6388386E1,1.5306842E1,1.237444E0,5.0204515E0,1.1003605E1,1.10452644E2,9.4469055E1,1.9278021E0,8.736406E0,1.3681629E1,2.401529E1,1.4513928E0,2.4687862E0,1.933832E0,7.864753E1,6.2961125E0,5.48874E0,1.4818601E1,9.461131E0,3.689172E1,7.86037E0,7.4464717E0,1.0508794E2,5.364708E0,1.2008961E0,9.326816E1,1.1475122E1,2.2065074E0,6.0222406E0,1.799305E1,2.3720995E1,5.4926537E1,1.2281146E0,5.067998E0],"tree_param":{"num_deleted":"0","num_feature":"16","num_nodes":"109","size_leaf_vector":"1"}},{"base_weights":[2.4692768E-2,-6.5436107E-1,5.0164396E-1,-1.11961E0,-1.5513088E-2,-3.032673E-1,7.6296043E-1,-1.3463012E0,1.2774583E0,9.989284E-1,-9.0729874E-1,-1.6163692E0,2.3189905E-1,-1.6239424E0,8.3641E-1,-1.4509063E0,7.7783865E-1,1.5446132E0,-1.0027434E-1,-1.0190311E-1,1.2468848E0,-1.7330843E-1,-1.6138055E0,-1.0093631E-1,-1.05540484E-1,1.2565467E0,-3.9368853E-1,-1.0052249E-1,-1.2213979E-1,3.734498E-1,1.0177296E0,-1.0021988E-1,-7.840546E-1,-1.0079426E-1,1.0163241E-1,9.4202965E-2,1.0074722E-1,1.353625E0,-1.0236397E-1,-9.5777094E-1,1.4915302E0,-1.01306945E-1,-1.6862394E0,-1.0718779E-1,1.4000791E0,1.1634935E0,-1.1062859E0,-1.6777073E0,9.8360413E-1,1.0423155E0,-1.0965766E-1,7.718193E-2,-1.0005818E-1,1.4183651E0,-1.0531753E-1,5.2802944E-1,-1.6254984E0,8.396522E-2,1.0589056E-1,-1.0008539E-1,-1.7703934E0,1.5292747E0,-1.04726665E-1,-1.0424558E-1,1.0161127E-1,-1.6757959E0,8.7440604E-1,-1.0067051E-1,-1.7357086E0,1.1936339E0,-1.09884806E-1,8.0553293E-1,1.3328211E0,1.5049276E0,7.744099E-1,-1.0234525E-1,1.039838E-1,-1.0154976E-1,-1.7475761E0,-1.1750449E-1,-1.0219915E-1,8.080263E-2,1.5818689E0,-1.02937624E-1,-1.7519418E0,-1.1525415E-1,1.0242945E-1,-1.2649652E-1,-1.7092011E0,1.3551563E0,-1.021743E-1,9.7925204E-1,-1.0864109E-1,1.4249651E0,-1.1164275E-1,1.4042695E0,1.02655075E-1,-1.067539E-1,1.0190092E-1,-1.02143295E-1,-1.1891813E-1,1.0289456E-1,9.428773E-2,-1.007676E-1,-1.7792009E0,-1.6724653E0,-1.8221898E0,-1.1988925E-1,1.4305491E0,-1.835792E0,1.0468006E0,1.4935547E0,1.0528461E0,9.971913E-2,7.287557E-2,-1.2574635E-1,-1.109625E-1,-1.0432714E-1,-1.1549797E-1,-1.2618871E-1,-1.074929E-1,9.4590396E-2,5.69072E-2,-1.0997888E-1,-1.24981195E-1,7.036669E-2,-1.09803006E-1,6.3471004E-2,9.7384885E-2,-1.2413745E-1,9.995408E-2],"categories":[],"categories_nodes":[],"categories_segments":[],"categories_sizes":[],"default_left":[0,0,0,0,0,0,0,0,0,0,0,0,0,0,0,0,0,0,0,0,0,0,0,0,0,0,0,0,0,0,0,0,0,0,0,0,0,0,0,0,0,0,0,0,0,0,0,0,0,0,0,0,0,0,0,0,0,0,0,0,0,0,0,0,0,0,0,0,0,0,0,0,0,0,0,0,0,0,0,0,0,0,0,0,0,0,0,0,0,0,0,0,0,0,0,0,0,0,0,0,0,0,0,0,0,0,0,0,0,0,0,0,0,0,0,0,0,0,0,0,0,0,0,0,0,0,0,0,0,0,0],"id":5,"left_children":[1,3,5,7,9,11,13,15,17,19,21,23,25,27,29,31,33,35,-1,-1,37,39,41,-1,-1,43,45,-1,-1,47,49,-1,51,-1,-1,-1,-1,53,-1,55,57,-1,59,-1,61,63,65,67,69,71,-1,-1,-1,73,-1,75,77,-1,-1,-1,79,81,-1,-1,-1,83,85,-1,87,89,-1,91,93,95,97,-1,-1,-1,99,-1,-1,-1,101,-1,103,-1,-1,-1,105,107,-1,109,-1,111,-1,113,-1,-1,-1,-1,-1,-1,-1,-1,115,117,119,-1,121,123,125,127,129,-1,-1,-1,-1,-1,-1,-1,-1,-1,-1,-1,-1,-1,-1,-1,-1,-1,-1],"loss_changes":[2.5686444E2,9.724347E1,9.799818E1,1.0287732E2,1.247455E2,8.02469E1,6.1653915E1,3.8440247E1,1.2482208E1,4.1647644E1,3.8037968E1,5.3482056E-3,5.2000294E1,8.983421E-2,2.8628601E1,1.4019379E1,1.5798372E1,5.5351257E-3,0E0,0E0,1.7974579E1,4.701303E1,1.3542175E-2,0E0,0E0,1.2997292E1,5.5875843E1,0E0,0E0,1.2019744E2,1.654007E1,0E0,4.200962E1,0E0,0E0,0E0,0E0,1.1073135E1,0E0,2.4294125E1,3.1149673E-1,0E0,3.1669617E-2,0E0,1.1555153E1,1.9380934E1,3.8982967E1,8.1726074E-2,4.220159E1,1.6692535E1,0E0,0E0,0E0,3.074623E0,0E0,1.8016907E1,1.7406464E-2,0E0,0E0,0E0,1.5657425E-2,3.4901428E-1,0E0,0E0,0E0,7.476807E-2,1.5330051E1,0E0,5.1540375E-2,3.1110474E1,0E0,5.8537483E1,3.1075378E1,5.203781E-1,1.3470918E1,0E0,0E0,0E0,1.2714386E-2,0E0,0E0,0E0,5.439377E-2,0E0,1.3595581E-2,0E0,0E0,0E0,1.3084412E-2,1.5886032E1,0E0,2.3810661E1,0E0,2.6769562E0,0E0,1.0748138E0,0E0,0E0,0E0,0E0,0E0,0E0,0E0,0E0,1.9525528E-2,2.4585724E-3,2.2734642E-2,0E0,1.9906921E0,4.1675568E-4,2.0920227E1,1.7591705E0,2.5910408E1,0E0,0E0,0E0,0E0,0E0,0E0,0E0,0E0,0E0,0E0,0E0,0E0,0E0,0E0,0E0,0E0,0E0,0E0],"parents":[2147483647,0,0,1,1,2,2,3,3,4,4,5,5,6,6,7,7,8,8,9,9,10,10,11,11,12,12,13,13,14,14,15,15,16,16,17,17,20,20,21,21,22,22,25,25,26,26,29,29,30,30,32,32,37,37,39,39,40,40,42,42,44,44,45,45,46,46,47,47,48,48,49,49,53,53,55,55,56,56,60,60,61,61,65,65,66,66,68,68,69,69,71,71,72,72,73,73,74,74,78,78,82,82,84,84,88,88,89,89,91,91,93,93,95,95,104,104,105,105,106,106,108,108,109,109,110,110,111,111,112,112],"right_children":[2,4,6,8,10,12,14,16,18,20,22,24,26,28,30,32,34,36,-1,-1,38,40,42,-1,-1,44,46,-1,-1,48,50,-1,52,-1,-1,-1,-1,54,-1,56,58,-1,60,-1,62,64,66,68,70,72,-1,-1,-1,74,-1,76,78,-1,-1,-1,80,82,-1,-1,-1,84,86,-1,88,90,-1,92,94,96,98,-1,-1,-1,100,-1,-1,-1,102,-1,104,-1,-1,-1,106,108,-1,110,-1,112,-1,114,-1,-1,-1,-1,-1,-1,-1,-1,116,118,120,-1,122,124,126,128,130,-1,-1,-1,-1,-1,-1,-1,-1,-1,-1,-1,-1,-1,-1,-1,-1,-1,-1],"split_conditions":[5.1739268E-2,1.9401677E-1,-2.3531249E-1,1.934488E0,-2.3401861E-1,-2.5877595E-1,-1.1057447E0,1.8281084E0,-1.424799E-1,-1.1391434E-1,-1.109782E0,-7.277861E-1,-1.5563262E-1,-1.1652433E0,5.5113834E-1,8.557748E-1,6.35493E-1,-5.223357E-1,-1.0027434E-1,-1.0190311E-1,1.1551976E0,-1.1374251E0,1.2092324E0,-1.0093631E-1,-1.05540484E-1,-8.133919E-1,-1.5173942E0,-1.0052249E-1,-1.2213979E-1,7.3659223E-1,1.6279064E0,-1.0021988E-1,8.7848455E-1,-1.0079426E-1,1.0163241E-1,9.4202965E-2,1.0074722E-1,1.0302421E0,-1.0236397E-1,-9.269407E-1,1.1236763E0,-1.01306945E-1,-6.5110147E-1,-1.0718779E-1,1.0630497E0,1.3015E0,1.3961872E0,3.0669147E-1,7.7849615E-1,8.044436E-1,-1.0965766E-1,7.718193E-2,-1.0005818E-1,2.0117024E-1,-1.0531753E-1,-1.0291346E0,1.5686123E0,8.396522E-2,1.0589056E-1,-1.0008539E-1,6.464613E-1,-1.9850063E0,-1.04726665E-1,-1.0424558E-1,1.0161127E-1,-6.1459106E-1,1.0921135E0,-1.0067051E-1,-1.2382576E0,8.0299836E-1,-1.09884806E-1,3.4438288E-1,1.2249616E0,-4.9133733E-2,6.8259346E-1,-1.0234525E-1,1.039838E-1,-1.0154976E-1,-1.3668965E0,-1.1750449E-1,-1.0219915E-1,8.080263E-2,-1.297555E-1,-1.02937624E-1,-1.1324165E0,-1.1525415E-1,1.0242945E-1,-1.2649652E-1,1.0704107E0,5.1019007E-1,-1.021743E-1,-7.302888E-1,-1.0864109E-1,7.4245757E-1,-1.1164275E-1,-9.672557E-1,1.02655075E-1,-1.067539E-1,1.0190092E-1,-1.02143295E-1,-1.1891813E-1,1.0289456E-1,9.428773E-2,-1.007676E-1,-8.190236E-1,9.1310036E-1,5.2963275E-1,-1.1988925E-1,1.2418406E0,1.0583736E0,4.5738903E-1,-7.909887E-1,2.5738719E0,9.971913E-2,7.287557E-2,-1.2574635E-1,-1.109625E-1,-1.0432714E-1,-1.1549797E-1,-1.2618871E-1,-1.074929E-1,9.4590396E-2,5.69072E-2,-1.0997888E-1,-1.24981195E-1,7.036669E-2,-1.09803006E-1,6.3471004E-2,9.7384885E-2,-1.2413745E-1,9.995408E-2],"split_indices":[8,5,2,9,4,5,7,4,2,0,12,5,5,7,12,9,1,2,0,0,7,12,5,0,0,9,9,0,0,3,9,0,9,0,0,0,0,2,0,9,0,0,1,0,8,12,8,8,11,5,0,0,0,7,0,9,5,0,0,0,0,11,0,0,0,3,4,0,4,8,0,4,3,7,2,0,0,0,12,0,0,0,0,0,7,0,0,0,5,2,0,7,0,11,0,3,0,0,0,0,0,0,0,0,7,7,0,0,9,12,5,1,11,0,0,0,0,0,0,0,0,0,0,0,0,0,0,0,0,0,0],"split_type":[0,0,0,0,0,0,0,0,0,0,0,0,0,0,0,0,0,0,0,0,0,0,0,0,0,0,0,0,0,0,0,0,0,0,0,0,0,0,0,0,0,0,0,0,0,0,0,0,0,0,0,0,0,0,0,0,0,0,0,0,0,0,0,0,0,0,0,0,0,0,0,0,0,0,0,0,0,0,0,0,0,0,0,0,0,0,0,0,0,0,0,0,0,0,0,0,0,0,0,0,0,0,0,0,0,0,0,0,0,0,0,0,0,0,0,0,0,0,0,0,0,0,0,0,0,0,0,0,0,0,0],"sum_hessian":[7.931006E2,3.2721286E2,4.6588773E2,1.8932092E2,1.3789192E2,1.14172264E2,3.5171545E2,1.7296783E2,1.6353094E1,6.450413E1,7.33878E1,3.3064095E1,8.110817E1,1.04954E1,3.4122003E2,1.6485446E2,8.113363E0,1.4958173E1,1.394921E0,5.6041245E0,5.8899998E1,3.600128E1,3.7386517E1,2.1169565E1,1.1894529E1,3.0753534E1,5.0354637E1,9.279168E0,1.2162323E0,9.604609E1,2.4517395E2,1.3833597E2,2.6518509E1,2.0909235E0,6.022439E0,6.2522078E0,8.705965E0,5.6784046E1,2.1159546E0,2.4475157E1,1.1526123E1,3.0059896E1,7.326622E0,1.4256655E0,2.932787E1,1.5804159E1,3.455048E1,2.2016256E1,7.402983E1,2.4300154E2,2.1724122E0,7.5195227E0,1.8998985E1,5.5593002E1,1.1910431E0,7.5839677E0,1.689119E1,5.920653E0,5.6054707E0,3.237363E0,4.0892587E0,2.8139395E1,1.1884747E0,2.126932E0,1.3677227E1,2.6838833E1,7.711647E0,8.589366E0,1.342689E1,6.871702E1,5.3128114E0,1.3390047E2,1.0910107E2,4.8990807E1,6.6021953E0,2.5866847E0,4.997283E0,1.4010301E1,2.8808885E0,2.677597E0,1.4116616E0,4.823754E0,2.331564E1,1.5748218E1,1.1090615E1,1.658979E0,6.052668E0,1.2168612E0,1.2210029E1,6.497675E1,3.740265E0,1.25259125E2,8.641353E0,1.0594674E2,3.1543336E0,2.5863455E1,2.3127352E1,1.6654559E0,4.9367394E0,1.4113046E0,1.469584E0,1.6540815E1,6.7748246E0,1.6325526E0,9.458062E0,9.287955E0,2.9220734E0,1.4726353E0,6.350412E1,2.9314044E0,1.2232772E2,8.943315E1,1.6513582E1,1.5653267E1,1.0210188E1,1.2245058E0,8.233557E0,7.814349E0,1.4736063E0,1.2420616E0,1.6800116E0,5.7127167E1,6.376953E0,1.6954938E0,1.2359107E0,1.1967584E2,2.651872E0,6.792039E0,8.264111E1,2.437197E0,1.40763855E1],"tree_param":{"num_deleted":"0","num_feature":"16","num_nodes":"131","size_leaf_vector":"1"}},{"base_weights":[1.2433653E-2,-2.5007704E-1,1.0129993E0,-8.5102683E-1,3.940568E-1,-9.745246E-2,1.0912632E0,-9.631949E-2,-6.6854537E-1,-1.5683374E0,5.405503E-1,-1.0197759E-1,1.1409189E0,1.0267908E-2,-1.0223778E0,-9.858478E-2,-1.0853645E-1,-9.744581E-2,6.4705837E-1,1.1812749E0,-1.0800413E-1,-9.23018E-1,6.735531E-1,-1.534517E0,-6.38885E-1,-1.6965832E0,7.0605236E-1,1.2142243E0,-1.087319E-1,6.1586785E-1,-9.84159E-2,-9.906515E-2,9.392165E-1,-9.683828E-2,-1.5883145E0,1.0908208E0,-1.0291202E0,-1.0283337E-1,-1.1437185E-1,9.161563E-1,2.2991475E-1,3.6691615E-1,1.3343741E0,-9.659654E-2,1.0001092E-1,1.1540222E0,-1.7073498E0,-9.714652E-2,-1.06506094E-1,-1.00284986E-1,1.4148276E0,-1.2681727E0,7.3052156E-1,9.8499835E-1,-1.7067726E0,-9.158401E-1,7.1008044E-1,1.1858964E0,-1.7821287E0,1.3612269E0,-1.0246657E-1,-9.624913E-2,1.2769524E0,-9.964054E-2,-1.22469485E-1,8.01864E-2,9.956886E-2,2.589914E-1,-9.758674E-2,1.0163565E-1,-9.832286E-2,1.2014904E0,4.5544478E-1,-1.0263258E-1,-1.1973005E-1,3.9105484E-1,-1.7075355E0,-1.0243216E-1,9.1482174E-1,7.707454E-1,9.6635476E-2,-1.8699814E0,-1.03315465E-1,9.9991775E-1,1.4265198E0,8.6529896E-2,-9.931123E-2,9.0327114E-2,-9.920284E-2,-1.0533772E-1,8.025401E-2,-5.3484265E-2,7.550317E-2,-1.0153202E-1,9.239463E-2,-1.00301445E-1,-1.1070518E-1,6.7303896E-2,-1.0846172E-1,-1.346671E-1,9.698369E-2,-1.1185332E-1,-1.2619674E-1,-1.15587845E-1,8.608131E-2,9.839444E-2,8.400588E-2],"categories":[],"categories_nodes":[],"categories_segments":[],"categories_sizes":[],"default_left":[0,0,0,0,0,0,0,0,0,0,0,0,0,0,0,0,0,0,0,0,0,0,0,0,0,0,0,0,0,0,0,0,0,0,0,0,0,0,0,0,0,0,0,0,0,0,0,0,0,0,0,0,0,0,0,0,0,0,0,0,0,0,0,0,0,0,0,0,0,0,0,0,0,0,0,0,0,0,0,0,0,0,0,0,0,0,0,0,0,0,0,0,0,0,0,0,0,0,0,0,0,0,0,0,0,0,0],"id":6,"left_children":[1,3,5,7,9,-1,11,-1,13,15,17,-1,19,21,23,-1,-1,-1,25,27,-1,29,31,33,35,37,39,41,-1,43,-1,-1,45,-1,47,49,51,-1,-1,53,55,57,59,-1,-1,61,63,-1,-1,-1,65,67,69,71,73,75,77,79,81,83,-1,-1,85,-1,-1,-1,-1,87,-1,-1,-1,89,91,-1,-1,93,95,-1,97,99,-1,101,-1,103,105,-1,-1,-1,-1,-1,-1,-1,-1,-1,-1,-1,-1,-1,-1,-1,-1,-1,-1,-1,-1,-1,-1],"loss_changes":[2.0202734E2,2.3584885E2,3.1875443E1,3.829631E1,8.452567E1,0E0,2.0771713E1,0E0,5.9443924E1,9.4947815E-3,6.0481506E1,0E0,1.7464066E1,5.2477425E1,3.1925568E1,0E0,0E0,0E0,3.5977554E1,1.4315308E1,0E0,3.3999336E1,2.9409883E1,7.7819824E-4,6.2794262E1,1.4678955E-2,2.5387802E1,1.5098434E1,0E0,2.0903862E1,0E0,0E0,2.5179508E1,0E0,1.7044067E-2,1.4812265E1,3.1937386E1,0E0,0E0,3.1799942E1,4.277332E1,3.2470226E1,1.029332E1,0E0,0E0,1.3448929E1,6.390762E-2,0E0,0E0,0E0,3.255558E-1,2.7471642E1,1.800441E1,1.9660995E1,3.500271E-2,2.3764967E1,2.6061846E1,1.8414383E0,3.1526566E-2,3.014145E0,0E0,0E0,9.579197E0,0E0,0E0,0E0,0E0,2.1209553E1,0E0,0E0,0E0,2.1837418E1,4.746313E1,0E0,0E0,1.8334719E1,3.050232E-2,0E0,1.9197056E1,1.3119442E1,0E0,3.4713745E-4,0E0,1.9828512E1,1.3594818E0,0E0,0E0,0E0,0E0,0E0,0E0,0E0,0E0,0E0,0E0,0E0,0E0,0E0,0E0,0E0,0E0,0E0,0E0,0E0,0E0,0E0,0E0],"parents":[2147483647,0,0,1,1,2,2,3,3,4,4,6,6,8,8,9,9,10,10,12,12,13,13,14,14,18,18,19,19,21,21,22,22,23,23,24,24,25,25,26,26,27,27,29,29,32,32,34,34,35,35,36,36,39,39,40,40,41,41,42,42,45,45,46,46,50,50,51,51,52,52,53,53,54,54,55,55,56,56,57,57,58,58,59,59,62,62,67,67,71,71,72,72,75,75,76,76,78,78,79,79,81,81,83,83,84,84],"right_children":[2,4,6,8,10,-1,12,-1,14,16,18,-1,20,22,24,-1,-1,-1,26,28,-1,30,32,34,36,38,40,42,-1,44,-1,-1,46,-1,48,50,52,-1,-1,54,56,58,60,-1,-1,62,64,-1,-1,-1,66,68,70,72,74,76,78,80,82,84,-1,-1,86,-1,-1,-1,-1,88,-1,-1,-1,90,92,-1,-1,94,96,-1,98,100,-1,102,-1,104,106,-1,-1,-1,-1,-1,-1,-1,-1,-1,-1,-1,-1,-1,-1,-1,-1,-1,-1,-1,-1,-1,-1],"split_conditions":[1.184469E0,3.0669147E-1,-8.7749624E-1,-7.508055E-1,-9.078751E-1,-9.745246E-2,-1.0173851E0,-9.631949E-2,-2.994377E-1,-5.928113E-1,-1.1227725E0,-1.0197759E-1,1.4195977E0,-2.4230559E-1,4.7856162E-4,-9.858478E-2,-1.0853645E-1,-9.744581E-2,-1.4968686E0,1.7890064E0,-1.0800413E-1,-1.2686431E0,-7.004227E-1,7.723449E-2,5.753783E-2,3.3234563E-1,2.3578148E-1,-6.631472E-1,-1.087319E-1,-3.8150457E-1,-9.84159E-2,-9.906515E-2,1.6901727E-1,-9.683828E-2,5.765947E-1,2.3578148E-1,1.641232E0,-1.0283337E-1,-1.1437185E-1,1.0048676E0,1.0322416E0,-1.5294722E0,2.0882366E0,-9.659654E-2,1.0001092E-1,-9.4726455E-1,6.248099E-1,-9.714652E-2,-1.06506094E-1,-1.00284986E-1,5.569721E-2,-2.6787966E-2,1.7084883E0,8.0299836E-1,4.7229922E-1,-5.3086114E-1,-3.9540136E-1,1.2330178E0,5.494342E-1,3.368394E-1,-1.0246657E-1,-9.624913E-2,1E0,-9.964054E-2,-1.22469485E-1,8.01864E-2,9.956886E-2,-1.2299474E0,-9.758674E-2,1.0163565E-1,-9.832286E-2,-1.3431658E0,1.5542575E0,-1.0263258E-1,-1.1973005E-1,-5.4791206E-1,5.4634655E-1,-1.0243216E-1,1.0974983E0,3.335984E-1,9.6635476E-2,3.368394E-1,-1.03315465E-1,8.878541E-1,5.2884674E-1,8.6529896E-2,-9.931123E-2,9.0327114E-2,-9.920284E-2,-1.0533772E-1,8.025401E-2,-5.3484265E-2,7.550317E-2,-1.0153202E-1,9.239463E-2,-1.00301445E-1,-1.1070518E-1,6.7303896E-2,-1.0846172E-1,-1.346671E-1,9.698369E-2,-1.1185332E-1,-1.2619674E-1,-1.15587845E-1,8.608131E-2,9.839444E-2,8.400588E-2],"split_indices":[6,8,7,7,2,0,1,0,7,3,10,0,1,8,1,0,0,0,13,2,0,13,2,8,1,10,13,13,0,7,0,0,8,0,3,13,2,0,0,0,13,13,10,0,0,13,2,0,0,0,1,0,2,8,2,2,2,8,0,2,0,0,14,0,0,0,0,2,0,0,0,13,8,0,0,2,8,0,2,0,0,2,0,13,3,0,0,0,0,0,0,0,0,0,0,0,0,0,0,0,0,0,0,0,0,0,0],"split_type":[0,0,0,0,0,0,0,0,0,0,0,0,0,0,0,0,0,0,0,0,0,0,0,0,0,0,0,0,0,0,0,0,0,0,0,0,0,0,0,0,0,0,0,0,0,0,0,0,0,0,0,0,0,0,0,0,0,0,0,0,0,0,0,0,0,0,0,0,0,0,0,0,0,0,0,0,0,0,0,0,0,0,0,0,0,0,0,0,0,0,0,0,0,0,0,0,0,0,0,0,0,0,0,0,0,0,0],"sum_hessian":[7.691305E2,6.092706E2,1.598599E2,3.1520953E2,2.9406107E2,4.759609E0,1.5510028E2,6.776311E1,2.4744644E2,2.042172E1,2.7363934E2,2.7993822E0,1.523009E2,8.47766E1,1.6266983E2,1.8481537E1,1.9401832E0,1.335177E1,2.6028757E2,1.5017249E2,2.1284087E0,3.5213276E1,4.956333E1,6.964006E1,9.302978E1,6.386489E0,2.5390108E2,1.4848573E2,1.686761E0,1.0191635E1,2.502164E1,5.263165E0,4.4300167E1,5.9717632E1,9.922426E0,1.7119715E1,7.591006E1,3.7501225E0,2.6363661E0,1.7614967E2,7.775142E1,1.845161E1,1.3003412E2,3.1541383E0,7.0374966E0,4.097834E1,3.3218265E0,6.0890965E0,3.833329E0,1.848723E0,1.5270992E1,6.6836205E1,9.073851E0,1.7164873E2,4.5009427E0,2.2954958E1,5.479646E1,1.3363811E1,5.0878E0,1.2886421E2,1.1699123E0,1.7996548E0,3.9178684E1,2.079464E0,1.2423625E0,7.7174444E0,7.5535474E0,1.0004158E1,5.683205E1,6.569661E0,2.50419E0,1.218243E2,4.9824425E1,3.0360527E0,1.46489E0,8.6548395E0,1.43001175E1,4.433034E0,5.0363426E1,5.9952097E0,7.368601E0,3.199621E0,1.8881793E0,1.9748459E1,1.09115746E2,3.8030567E1,1.1481164E0,6.107749E0,3.8964088E0,2.6077616E0,1.1921654E2,1.7991175E1,3.1833248E1,3.012073E0,5.642767E0,3.2337203E0,1.1066397E1,4.7723427E1,2.6399975E0,1.2406561E0,4.7545533E0,1.718159E0,1.481462E0,2.2099013E0,1.7538557E1,4.966492E1,5.945083E1],"tree_param":{"num_deleted":"0","num_feature":"16","num_nodes":"107","size_leaf_vector":"1"}}]},"name":"gbtree"},"learner_model_param":{"base_score":"5E-1","boost_from_average":"1","num_class":"0","num_feature":"16","num_target":"1"},"objective":{"name":"binary:logistic","reg_loss_param":{"scale_pos_weight":"2.33333325"}}},"version":[3,0,1]}